{
    "weights": [
        [
            [
                0.0012966548686660182,
                -0.004482256748185716,
                -0.008765765174591343,
                -0.00884128026501154,
                0.008077563429587133,
                0.002290087197103792,
                -0.02064119937925779,
                0.008147620430125365,
                -0.022455887477486846,
                0.004807114864370117,
                -0.003516720093159178,
                0.015622719416182672,
                -0.001385801699021735,
                -0.008547974853389925,
                -0.0026945872528738603,
                0.011751740020578825
            ],
            [
                0.013997788983341683,
                -0.004695787266240536,
                -0.0019882550027988328,
                0.005221607485389019,
                -0.007817198805013512,
                -0.0017250084850333298,
                0.005828512244133169,
                -0.0022973029679958334,
                0.016617398424829306,
                -0.010300115208660388,
                -0.010136563099474263,
                -0.007327679625708985,
                -0.024923824388196555,
                0.007817864846096464,
                0.0021357810780217967,
                -0.002670278627023088
            ],
            [
                -0.012808917973388794,
                -0.002287839368895749,
                -0.005710514226418563,
                -0.005307881960641386,
                0.0031427722166292387,
                -0.0005872923094569731,
                -0.005617912875469303,
                -0.004556693650400094,
                0.00021576985388504363,
                -0.020056340212419622,
                -0.0037786013787589057,
                0.008531933990909246,
                0.007199991150367511,
                -0.013353670581802375,
                -0.011144908219976577,
                -0.01161414194679887
            ],
            [
                0.014658661720662615,
                0.0065911229597239345,
                0.005138908996904127,
                -0.0035519502884888143,
                0.003429575063072955,
                -0.005656877574519324,
                0.00933142045386078,
                0.009965841080922605,
                -0.0064460564852163215,
                0.014504385574226834,
                -0.015643310727899352,
                -0.0013519446876407,
                0.02205501957486371,
                -0.0015053053728303037,
                -0.011507542244763863,
                -5.252331325738005e-05
            ]
        ],
        [
            [
                -0.008243582450770413,
                0.011360206696563875,
                -0.010880671171516513,
                0.011361559702289786,
                0.0008069520615618946,
                0.021103862829556876,
                0.00974063809557689,
                0.011355165337429092,
                0.002126896675198755,
                -0.011405603811145979,
                -0.015124312426651073,
                -0.00495300183054766,
                -0.0002882675853692137,
                -0.026873791484192965,
                -0.005032054597975328,
                -0.0013588464908878565
            ],
            [
                -0.01858726925281011,
                0.004887641554722765,
                0.0005069036068565086,
                0.011057168556689785,
                0.0133298561922598,
                -0.010693504512393329,
                -0.004277216177142732,
                0.00999544018494368,
                0.014067547996216024,
                0.0019297545919271788,
                0.002321812316857331,
                0.004951260231388086,
                0.011038650291651362,
                0.01330574401146916,
                0.009397441586091177,
                0.006350813889595417
            ],
            [
                0.009223776449893582,
                -0.0070631302377618934,
                0.017492630052788546,
                -0.012610895069955044,
                0.03749066667716747,
                0.0031188773586713885,
                0.006576391606916015,
                -0.002188533044243241,
                -0.006136861155135747,
                0.0004437639152643675,
                -0.001336196093375488,
                0.004806283900239051,
                0.0020285314394104313,
                -0.009810334249792385,
                -0.006959890718063941,
                0.003910032070450094
            ],
            [
                -0.024198435299465488,
                0.0005508888849199807,
                -0.0019050120304751885,
                0.008786076343973182,
                -0.0009339723877844179,
                -0.012130835534401637,
                0.005557547772856657,
                0.0021236035769314964,
                0.02069496001336524,
                -0.0019579139941790953,
                0.005932341059416274,
                -0.0008403178530877005,
                0.02660696787803321,
                0.01073022005160464,
                0.004751779503825139,
                0.004635955658201823
            ],
            [
                0.0046164207089216865,
                0.004870445040645467,
                0.007812728151211947,
                -0.01729259572711725,
                0.0021035556170258497,
                -0.021481700272604033,
                0.01315494251109956,
                -0.0030197649165672816,
                0.007759045051079581,
                -0.00651803759232038,
                0.010094645097101087,
                0.0020631392154870577,
                0.007829355937189498,
                0.0046798449091881985,
                -0.00546910244585749,
                -0.0013972180400405134
            ],
            [
                0.021409161897732013,
                -0.0027319470481339753,
                0.00047731814267119415,
                0.004816350308808445,
                -0.007298670391352906,
                0.014786018332036903,
                0.0007407044699490307,
                0.008781354966548707,
                -0.0028859397011460207,
                0.02233093110317763,
                -0.000464842653690728,
                0.006977361759469835,
                -1.7174404300005867e-05,
                -0.001329509162448185,
                -0.010798272233980218,
                -0.008748155402542512
            ],
            [
                0.0013082195351761248,
                -0.006056496548245656,
                0.002520735547127363,
                0.007956903717612384,
                -0.0023890751187833686,
                0.00985457239579207,
                0.008288300799202886,
                0.005610668513719277,
                0.0057596697159847015,
                0.009042689152316192,
                -0.019998097908762228,
                -0.011179815324063529,
                0.0046374764942564714,
                0.018302693740077324,
                0.007627417396222841,
                -0.0014566003237821044
            ],
            [
                -0.006449947046194737,
                0.020513491356093004,
                -0.009678685592920143,
                -0.003407402443624872,
                0.01869975988418106,
                -0.0028467631412299357,
                -0.004516816571108701,
                0.012992400410082722,
                -0.010346897049696498,
                -0.00713487898197791,
                -0.011842602587637726,
                0.010220717638680375,
                -0.00385170937070487,
                0.0004416615423781352,
                0.005207549537359796,
                0.005231813715899532
            ],
            [
                -0.0033688573377196147,
                -0.005938053523423268,
                0.009267646869635776,
                -0.001124833118181587,
                0.0032970493788081453,
                0.006354524719996302,
                0.003520886484832574,
                0.007396522568678691,
                -0.01198377055289336,
                0.007172753702286796,
                0.018762617718936322,
                0.009489930814448655,
                -0.00017124928621611046,
                0.0015656420869030433,
                -0.008115169247953568,
                0.01816283979501924
            ],
            [
                -0.0052280513320883985,
                -0.00048792491300409495,
                -0.008214741389648146,
                -0.0028744232125176325,
                -0.0036412344505703277,
                -0.009758245963939094,
                -0.007698869851406982,
                -0.0023564080524506328,
                -0.01184092625053539,
                0.009803427206267082,
                0.017047477898507957,
                0.006393614085843657,
                0.021261752521053223,
                0.01495064451602804,
                -0.0009230485092737508,
                0.008233062077115274
            ],
            [
                -0.017249978326351015,
                -0.016625707815216405,
                0.0018675549709396833,
                -0.009112193563467952,
                -0.001223370749601175,
                0.0008776931827730674,
                0.009575884140064548,
                0.0022935284008373615,
                -0.00854303599767133,
                0.00016547696833270676,
                0.013523088167933137,
                0.010074825140435935,
                -0.007374426116877753,
                0.012952700117125508,
                -0.02613400136969424,
                -0.002428747998471999
            ],
            [
                -0.01414005550732802,
                -0.0024992065676519683,
                -0.016804182887552237,
                -0.011432468895628028,
                0.007036534970821625,
                -0.002790686275214573,
                -0.0033378104777664484,
                -0.02069213920822536,
                -0.013067600863015425,
                -0.017991371337771806,
                -0.009751445391375098,
                -0.00758255054235906,
                -0.0044700990379816456,
                -5.637963226996559e-05,
                0.01679629448785082,
                -0.0033126936815334115
            ],
            [
                0.0037911360884209113,
                -0.015904597350049236,
                -0.011785759204754534,
                -0.011117326679170727,
                0.01877276050587225,
                -0.008824461239220795,
                -0.011624429291283716,
                -0.001356652812527725,
                -0.015579830794638556,
                0.013174721929430927,
                -0.002351689327138937,
                -0.006048952985830869,
                -0.0008604333649001054,
                -0.011817037761764862,
                -0.013490297113230292,
                0.011452785971815706
            ],
            [
                0.009333539406998862,
                0.005468135546023881,
                -0.008108283523158592,
                -0.009515624445879368,
                0.027590975578488455,
                0.005336980962948367,
                0.006557937119207256,
                -0.022229898388443928,
                -0.013355007231338967,
                -5.945859358463956e-05,
                0.021355234732752405,
                0.004428704715547607,
                0.004361392739619815,
                0.0007711390439804339,
                -0.008359361769369819,
                -0.014620335211529003
            ],
            [
                -0.0040398189176187255,
                0.01947767974572989,
                0.0009474917765741897,
                -0.0083147085442265,
                -0.001301649137327736,
                0.0037715008061899548,
                -0.016030141669049158,
                -0.003684587358202148,
                0.0034161963488315073,
                0.008012708621442715,
                0.001859188755713518,
                -0.0037011187641306366,
                -0.002777622091439504,
                0.006869561821607762,
                -0.009837138301194977,
                0.0015266516776820944
            ],
            [
                -0.001430342793085941,
                0.0044929799581325145,
                -0.00166005343738381,
                -0.004323321150520849,
                0.0028808620898297644,
                0.0037712093432526145,
                0.01682300390654054,
                -0.005565085680935992,
                -0.005219155746300944,
                -0.010294200823405287,
                -0.009558220743376662,
                -0.023395414655976263,
                0.008179582511881835,
                -0.006230510818268107,
                0.003858336502336331,
                -0.004488425512134628
            ]
        ],
        [
            [
                0.00568363998086897,
                -0.004643330941267037,
                -0.02108403741666912,
                -0.01678968363914115,
                0.002712353734396296,
                0.0014865914401679984,
                0.004396483679131171,
                -0.0028724318840492088
            ],
            [
                0.0023733916249706836,
                -0.0022499739397626455,
                -0.0070172846639237054,
                0.007579648581039416,
                0.000933546920725746,
                0.003327753731459745,
                0.0026743373976532187,
                0.0014380550264744445
            ],
            [
                -0.008595427496745292,
                0.006123919865755335,
                0.011260944252292238,
                0.006966886315940367,
                -0.020905937173979216,
                -0.0017405574270643487,
                -0.0033213745681044717,
                0.01043262046347374
            ],
            [
                -0.003933825295228189,
                0.01633476296659293,
                0.01987157206827687,
                -0.008456199743747124,
                -0.010208368710778341,
                0.00036262346461962214,
                0.02564077713572567,
                -0.011486706869444465
            ],
            [
                -0.003471545351323415,
                -0.0005024995531909282,
                0.006349756431936253,
                -0.013829698839583656,
                -0.0148959313583396,
                -0.014667055328831,
                -0.005278439542663843,
                -0.01532117936776565
            ],
            [
                0.013399755887992913,
                0.0026646988619446034,
                -0.0015444190930060345,
                0.0009883498225894062,
                -0.0002466336754279049,
                0.015744531689207135,
                0.011961271672523442,
                0.011589646164123871
            ],
            [
                0.010046604660414061,
                -0.0031929514873030107,
                0.006044294834074921,
                -0.017643361560942428,
                -0.005243344536599898,
                -0.010227955728277617,
                0.002237435500473216,
                0.0027292589019011684
            ],
            [
                -0.012989801710618734,
                0.007020251429179848,
                0.0074861693941842,
                -0.009963104855205915,
                -0.01163650230618486,
                -0.0035848674977329163,
                -0.019232364138805882,
                -0.004105415856071939
            ],
            [
                0.008211980594376708,
                0.0051404025844351475,
                -0.015090400664163832,
                -0.0053388472985289575,
                0.002998913023652473,
                -0.003207187826446618,
                0.004729057158795092,
                0.005808815992784996
            ],
            [
                -0.003590512690378033,
                -6.842662773770701e-05,
                -0.011251434604885603,
                0.0032868441448222004,
                0.005547261283920324,
                -0.004770005966575145,
                0.02072408210444196,
                0.0013632013708473549
            ],
            [
                -0.0019092420822559503,
                -0.0007214730887339456,
                -0.0009061158155675186,
                0.006805403401291459,
                0.014287335369967957,
                0.012484521370882047,
                -0.01622515425548649,
                0.012642476531616972
            ],
            [
                -0.01091421567482148,
                -0.004856953973692708,
                -0.003775512303941485,
                -0.0001930080605587232,
                0.009080504800957269,
                0.0049505297761854765,
                -0.010633812711663502,
                -0.001087374455956801
            ],
            [
                -0.0023605024539744236,
                -0.00337722157457813,
                -0.0016214753247861889,
                0.0033536479834755314,
                0.00679351495668629,
                -0.0008468560239726575,
                0.013597593774275043,
                8.472685282823361e-05
            ],
            [
                -0.003684699132887253,
                -0.014509347254272045,
                -0.005091091140913845,
                0.02310671453730514,
                -0.00027006039464287597,
                -0.0056591666767691964,
                0.029790624816214414,
                0.0046718069060238945
            ],
            [
                0.0009322518703461697,
                -0.0015181998793875873,
                -0.002071165571057257,
                -0.0023386678563260977,
                0.006780084275079711,
                -0.006919939483214861,
                -0.007212248796721446,
                0.00924778620312181
            ],
            [
                -0.011704392723538919,
                -0.003197496298032797,
                0.0019304101835299389,
                -0.002239665880407905,
                -0.0052269649040347956,
                0.003740768649379217,
                0.003632550491717867,
                -0.010087556654190716
            ]
        ]
    ],
    "biases": [
        [
            [
                0.0,
                0.0,
                0.0,
                0.0,
                0.0,
                0.0,
                0.0,
                0.0,
                0.0,
                0.0,
                0.0,
                0.0,
                0.0,
                0.0,
                0.0,
                0.0
            ]
        ],
        [
            [
                0.0,
                0.0,
                0.0,
                0.0,
                0.0,
                0.0,
                0.0,
                0.0,
                0.0,
                0.0,
                0.0,
                0.0,
                0.0,
                0.0,
                0.0,
                0.0
            ]
        ],
        [
            [
                0.0,
                0.0,
                0.0,
                0.0,
                0.0,
                0.0,
                0.0,
                0.0
            ]
        ]
    ]
}
